FANN_FLO_2.1
num_layers=5
learning_rate=0.250000
connection_rate=1.000000
network_type=0
learning_momentum=0.000000
training_algorithm=3
train_error_function=1
train_stop_function=0
cascade_output_change_fraction=0.010000
quickprop_decay=-0.000100
quickprop_mu=1.750000
rprop_increase_factor=1.200000
rprop_decrease_factor=0.500000
rprop_delta_min=0.000000
rprop_delta_max=50.000000
rprop_delta_zero=0.100000
cascade_output_stagnation_epochs=12
cascade_candidate_change_fraction=0.010000
cascade_candidate_stagnation_epochs=12
cascade_max_out_epochs=150
cascade_max_cand_epochs=150
cascade_num_candidate_groups=2
bit_fail_limit=3.49999994039535522461e-01
cascade_candidate_limit=1.00000000000000000000e+03
cascade_weight_multiplier=4.00000005960464477539e-01
cascade_activation_functions_count=10
cascade_activation_functions=3 5 7 8 10 11 14 15 16 17 
cascade_activation_steepnesses_count=4
cascade_activation_steepnesses=2.50000000000000000000e-01 5.00000000000000000000e-01 7.50000000000000000000e-01 1.00000000000000000000e+00 
layer_sizes=2 9 17 3 2 
scale_included=0
neurons (num_inputs, activation_function, activation_steepness)=(0, 0, 0.00000000000000000000e+00) (0, 0, 0.00000000000000000000e+00) (2, 14, 1.00000000000000000000e+00) (2, 14, 1.00000000000000000000e+00) (2, 14, 1.00000000000000000000e+00) (2, 14, 1.00000000000000000000e+00) (2, 14, 1.00000000000000000000e+00) (2, 14, 1.00000000000000000000e+00) (2, 14, 1.00000000000000000000e+00) (2, 14, 1.00000000000000000000e+00) (0, 14, 1.00000000000000000000e+00) (9, 14, 1.00000000000000000000e+00) (9, 14, 1.00000000000000000000e+00) (9, 14, 1.00000000000000000000e+00) (9, 14, 1.00000000000000000000e+00) (9, 14, 1.00000000000000000000e+00) (9, 14, 1.00000000000000000000e+00) (9, 14, 1.00000000000000000000e+00) (9, 14, 1.00000000000000000000e+00) (9, 14, 1.00000000000000000000e+00) (9, 14, 1.00000000000000000000e+00) (9, 14, 1.00000000000000000000e+00) (9, 14, 1.00000000000000000000e+00) (9, 14, 1.00000000000000000000e+00) (9, 14, 1.00000000000000000000e+00) (9, 14, 1.00000000000000000000e+00) (9, 14, 1.00000000000000000000e+00) (0, 14, 1.00000000000000000000e+00) (17, 14, 1.00000000000000000000e+00) (17, 14, 1.00000000000000000000e+00) (0, 14, 1.00000000000000000000e+00) (3, 14, 1.00000000000000000000e+00) (0, 14, 1.00000000000000000000e+00) 
connections (connected_to_neuron, weight)=(0, 1.50000000000000000000e+03) (1, -3.50847900390625000000e+02) (0, 1.50000000000000000000e+03) (1, -1.17747888183593750000e+03) (0, 1.50000000000000000000e+03) (1, -1.49075195312500000000e+03) (0, 1.50000000000000000000e+03) (1, -1.38250634765625000000e+03) (0, 1.50000000000000000000e+03) (1, -1.20257763671875000000e+03) (0, 1.50000000000000000000e+03) (1, -1.20548779296875000000e+03) (0, 1.50000000000000000000e+03) (1, -1.13528491210937500000e+03) (0, 1.50000000000000000000e+03) (1, -9.65555053710937500000e+02) (2, -3.14597961425781250000e+02) (3, -4.11562591552734375000e+02) (4, -5.78972900390625000000e+02) (5, -5.69917114257812500000e+02) (6, 5.30386840820312500000e+02) (7, 5.30386840820312500000e+02) (8, -4.11933990478515625000e+02) (9, -1.15993530273437500000e+02) (10, -1.29465844726562500000e+03) (2, 1.93114604949951171875e+01) (3, -1.12406723022460937500e+02) (4, 1.20037826538085937500e+02) (5, 1.24500831604003906250e+02) (6, 1.24500831604003906250e+02) (7, 1.24500831604003906250e+02) (8, -1.12406723022460937500e+02) (9, 1.42673807144165039062e+01) (10, -1.07473388671875000000e+03) (2, 5.67695312500000000000e+02) (3, -1.38342636108398437500e+02) (4, 6.19965087890625000000e+02) (5, 6.19965087890625000000e+02) (6, -1.28216491699218750000e+02) (7, -1.30552673339843750000e+02) (8, -1.36659225463867187500e+02) (9, 5.65930175781250000000e+02) (10, -1.28954272460937500000e+03) (2, 1.75571578979492187500e+02) (3, 2.13338424682617187500e+02) (4, 2.44608673095703125000e+02) (5, 2.44608245849609375000e+02) (6, -2.01453704833984375000e+02) (7, -2.01485198974609375000e+02) (8, 2.13396163940429687500e+02) (9, 1.71916854858398437500e+02) (10, -1.29120129394531250000e+03) (2, 2.88323699951171875000e+02) (3, 4.69782958984375000000e+02) (4, 3.19637390136718750000e+02) (5, 3.53169433593750000000e+02) (6, -4.64557586669921875000e+02) (7, -4.64557586669921875000e+02) (8, 4.69862792968750000000e+02) (9, 2.85225646972656250000e+02) (10, -1.23656811523437500000e+03) (2, -3.50094909667968750000e+02) (3, 2.49930709838867187500e+02) (4, -2.54928924560546875000e+02) (5, -8.27749450683593750000e+02) (6, 1.18282709121704101562e+01) (7, -1.46254692077636718750e+01) (8, 2.42776763916015625000e+02) (9, 1.55218063354492187500e+02) (10, 1.38627062988281250000e+03) (2, 2.32597064971923828125e+01) (3, -1.16424362182617187500e+02) (4, 1.25743301391601562500e+02) (5, 1.27990554809570312500e+02) (6, 1.28590408325195312500e+02) (7, 1.28590408325195312500e+02) (8, -1.16424362182617187500e+02) (9, 1.82047100067138671875e+01) (10, -1.07431250000000000000e+03) (2, 2.57601348876953125000e+02) (3, 4.33531066894531250000e+02) (4, 3.24111450195312500000e+02) (5, 3.24111450195312500000e+02) (6, -3.91398681640625000000e+02) (7, -3.93399963378906250000e+02) (8, 4.33555603027343750000e+02) (9, 2.54424774169921875000e+02) (10, -1.22996582031250000000e+03) (2, 7.73735107421875000000e+02) (3, -1.10144067382812500000e+03) (4, 1.11581115722656250000e+03) (5, 1.10541516113281250000e+03) (6, -3.95253051757812500000e+02) (7, -3.95234619140625000000e+02) (8, -1.10144042968750000000e+03) (9, -4.55564758300781250000e+02) (10, 1.48409008789062500000e+03) (2, 2.05128326416015625000e+02) (3, -3.04844757080078125000e+02) (4, 3.15863067626953125000e+02) (5, 3.13673370361328125000e+02) (6, 3.15863067626953125000e+02) (7, 3.15863067626953125000e+02) (8, -3.04844757080078125000e+02) (9, 1.99668975830078125000e+02) (10, -1.04401220703125000000e+03) (2, 4.08138031005859375000e+02) (3, -6.06800842285156250000e+02) (4, 5.69800170898437500000e+02) (5, 1.25438476562500000000e+03) (6, -1.07562231445312500000e+03) (7, -1.07528808593750000000e+03) (8, -6.06496459960937500000e+02) (9, -9.76831176757812500000e+02) (10, -1.17494653320312500000e+03) (2, -2.86393005371093750000e+02) (3, 2.99025604248046875000e+02) (4, -1.42163745117187500000e+03) (5, -1.42163732910156250000e+03) (6, -2.50391754150390625000e+02) (7, -2.50391754150390625000e+02) (8, 3.22430419921875000000e+02) (9, -2.87763977050781250000e+02) (10, -1.33143261718750000000e+03) (2, -4.91851593017578125000e+02) (3, -4.80451141357421875000e+02) (4, 4.12979705810546875000e+02) (5, -2.17363525390625000000e+02) (6, 1.52813293457031250000e+02) (7, 1.86032775878906250000e+02) (8, -5.74173645019531250000e+02) (9, -1.28780410766601562500e+02) (10, 1.28305676269531250000e+03) (2, 1.18370129394531250000e+03) (3, -1.45778857421875000000e+03) (4, 1.45797143554687500000e+03) (5, 1.45824182128906250000e+03) (6, -1.18292297363281250000e+03) (7, -1.18100170898437500000e+03) (8, -1.45778857421875000000e+03) (9, -1.17041528320312500000e+03) (10, 1.33686328125000000000e+03) (2, 5.18432800292968750000e+02) (3, -1.41895275878906250000e+03) (4, 1.41834338378906250000e+03) (5, 1.35752758789062500000e+03) (6, -6.78212768554687500000e+02) (7, -6.77689514160156250000e+02) (8, -1.41895275878906250000e+03) (9, -8.46816162109375000000e+02) (10, 1.47537475585937500000e+03) (2, -4.83288604736328125000e+02) (3, -1.24347912597656250000e+03) (4, 1.22355529785156250000e+03) (5, 1.25155432128906250000e+03) (6, -1.29443469238281250000e+03) (7, -1.29443469238281250000e+03) (8, -1.24347912597656250000e+03) (9, -1.27248364257812500000e+03) (10, 5.28835144042968750000e+02) (11, 1.15141609191894531250e+02) (12, 2.27107391357421875000e+02) (13, 1.15423278808593750000e+02) (14, 1.61269958496093750000e+02) (15, 1.38831359863281250000e+02) (16, -6.91674041748046875000e+01) (17, 2.27627700805664062500e+02) (18, 1.42890075683593750000e+02) (19, -9.07420063018798828125e+00) (20, 2.46268188476562500000e+02) (21, -2.09780292510986328125e+01) (22, 8.32804183959960937500e+01) (23, -1.14809104919433593750e+02) (24, -7.43533515930175781250e+00) (25, -1.57889118194580078125e+01) (26, -5.17317008972167968750e+01) (27, -4.68881774902343750000e+02) (11, 1.06250015258789062500e+02) (12, 1.10796623229980468750e+02) (13, 6.47307281494140625000e+01) (14, 1.14149681091308593750e+02) (15, 4.77189636230468750000e+01) (16, 8.36378097534179687500e+01) (17, 9.73545303344726562500e+01) (18, 2.57339191436767578125e+01) (19, 6.34536666870117187500e+01) (20, 8.35091018676757812500e+01) (21, 1.03698547363281250000e+02) (22, 8.23200836181640625000e+01) (23, 8.45171260833740234375e+00) (24, 6.46557855606079101562e+00) (25, 7.14731445312500000000e+01) (26, 1.68306040763854980469e+00) (27, -4.64195098876953125000e+01) (28, 6.81292572021484375000e+01) (29, 1.97777414321899414062e+00) (30, 9.26283359527587890625e+00) 
