FANN_FLO_2.1
num_layers=5
learning_rate=0.250000
connection_rate=1.000000
network_type=0
learning_momentum=0.000000
training_algorithm=0
train_error_function=1
train_stop_function=0
cascade_output_change_fraction=0.010000
quickprop_decay=-0.000100
quickprop_mu=1.750000
rprop_increase_factor=1.200000
rprop_decrease_factor=0.500000
rprop_delta_min=0.000000
rprop_delta_max=50.000000
rprop_delta_zero=0.100000
cascade_output_stagnation_epochs=12
cascade_candidate_change_fraction=0.010000
cascade_candidate_stagnation_epochs=12
cascade_max_out_epochs=150
cascade_max_cand_epochs=150
cascade_num_candidate_groups=2
bit_fail_limit=3.49999994039535522461e-01
cascade_candidate_limit=1.00000000000000000000e+03
cascade_weight_multiplier=4.00000005960464477539e-01
cascade_activation_functions_count=10
cascade_activation_functions=3 5 7 8 10 11 14 15 16 17 
cascade_activation_steepnesses_count=4
cascade_activation_steepnesses=2.50000000000000000000e-01 5.00000000000000000000e-01 7.50000000000000000000e-01 1.00000000000000000000e+00 
layer_sizes=4 7 10 3 2 
scale_included=0
neurons (num_inputs, activation_function, activation_steepness)=(0, 0, 0.00000000000000000000e+00) (0, 0, 0.00000000000000000000e+00) (0, 0, 0.00000000000000000000e+00) (0, 0, 0.00000000000000000000e+00) (4, 14, 1.00000000000000000000e+00) (4, 14, 1.00000000000000000000e+00) (4, 14, 1.00000000000000000000e+00) (4, 14, 1.00000000000000000000e+00) (4, 14, 1.00000000000000000000e+00) (4, 14, 1.00000000000000000000e+00) (0, 14, 1.00000000000000000000e+00) (7, 14, 1.00000000000000000000e+00) (7, 14, 1.00000000000000000000e+00) (7, 14, 1.00000000000000000000e+00) (7, 14, 1.00000000000000000000e+00) (7, 14, 1.00000000000000000000e+00) (7, 14, 1.00000000000000000000e+00) (7, 14, 1.00000000000000000000e+00) (7, 14, 1.00000000000000000000e+00) (7, 14, 1.00000000000000000000e+00) (0, 14, 1.00000000000000000000e+00) (10, 14, 1.00000000000000000000e+00) (10, 14, 1.00000000000000000000e+00) (0, 14, 1.00000000000000000000e+00) (3, 14, 1.00000000000000000000e+00) (0, 14, 1.00000000000000000000e+00) 
connections (connected_to_neuron, weight)=(0, -1.10671886706263034754e+25) (1, -1.34648870943810815500e+28) (2, -4.91341941124105503978e+26) (3, -5.30258898745829992201e+25) (0, -1.10671886706263034754e+25) (1, -1.34648870943810815500e+28) (2, -4.91341941124105503978e+26) (3, -5.30258898745829992201e+25) (0, 2.44342459112294282219e+25) (1, 1.39421884807209237659e+28) (2, 6.78652320270864841395e+26) (3, 7.41300857346092041241e+25) (0, -1.10671886706263034754e+25) (1, -1.34648870943810815500e+28) (2, -4.91341941124105503978e+26) (3, -5.30258898745829992201e+25) (0, -1.32815116178828013076e+24) (1, -2.24357772169334214180e+27) (2, -8.36234719878429034938e+25) (3, -8.89223626336987255721e+24) (0, 3.36944238141972730127e+25) (1, 1.13842454785940959564e+28) (2, 8.88824339643982784835e+26) (3, 9.48886864561004790059e+25) (4, -1.89096093286400000000e+12) (5, -1.89096093286400000000e+12) (6, 9.65596309094400000000e+12) (7, -1.89096093286400000000e+12) (8, -1.40136698347520000000e+13) (9, 9.39414834380800000000e+12) (10, -1.04555693998080000000e+13) (4, -5.64933636915200000000e+12) (5, -5.64933636915200000000e+12) (6, -1.08047427174400000000e+12) (7, -5.64933636915200000000e+12) (8, -1.21747569377280000000e+13) (9, -5.66800574054400000000e+12) (10, -1.25628506439680000000e+13) (4, -3.35515641446400000000e+12) (5, -3.35515641446400000000e+12) (6, -1.03647661260800000000e+12) (7, -3.35515641446400000000e+12) (8, -5.78712082841600000000e+12) (9, -3.57162844160000000000e+11) (10, 3.67369047244800000000e+12) (4, 1.15633856512000000000e+11) (5, 1.15633856512000000000e+11) (6, -3.32895826739200000000e+12) (7, 1.15633856512000000000e+11) (8, 2.39792842342400000000e+12) (9, -1.78180377804800000000e+12) (10, -3.95868084633600000000e+12) (4, 8.17676222464000000000e+11) (5, 8.17676222464000000000e+11) (6, 5.00998917324800000000e+12) (7, 8.17676222464000000000e+11) (8, 1.68518300467200000000e+12) (9, 9.84823732633600000000e+12) (10, 2.68518964592640000000e+13) (4, 6.65729228800000000000e+10) (5, 6.65729228800000000000e+10) (6, -7.87855441920000000000e+12) (7, 6.65729228800000000000e+10) (8, -1.24906124083200000000e+12) (9, -4.21679123660800000000e+12) (10, -9.33336973312000000000e+12) (4, -4.54922207232000000000e+11) (5, -4.54922207232000000000e+11) (6, 1.09682609356800000000e+12) (7, -4.54922207232000000000e+11) (8, -4.62457038438400000000e+12) (9, -8.49467460812800000000e+12) (10, -9.15520723353600000000e+12) (4, -4.61229752320000000000e+11) (5, -4.61229752320000000000e+11) (6, 3.87058132582400000000e+12) (7, -4.61229752320000000000e+11) (8, -5.43064955289600000000e+12) (9, 1.80457150873600000000e+12) (10, 1.33329610342400000000e+12) (4, 3.26713081856000000000e+11) (5, 3.26713081856000000000e+11) (6, 7.68816499916800000000e+12) (7, 3.26713081856000000000e+11) (8, 1.60025165168640000000e+13) (9, 1.11258852392960000000e+13) (10, 7.11592981299200000000e+12) (11, -4.15595925000000000000e+06) (12, -4.87384200000000000000e+06) (13, 2.56402350000000000000e+06) (14, -2.17590175000000000000e+06) (15, 2.97006450000000000000e+06) (16, 5.72972562500000000000e+05) (17, -2.88727100000000000000e+06) (18, -3.45557900000000000000e+06) (19, -3.37471475000000000000e+06) (20, -3.04966625000000000000e+06) (11, -3.82399437500000000000e+05) (12, 1.34494875000000000000e+06) (13, -4.24811150000000000000e+06) (14, -1.28050262500000000000e+06) (15, 2.92530550000000000000e+06) (16, -1.32590975000000000000e+06) (17, 2.84517675000000000000e+06) (18, 5.17923625000000000000e+05) (19, 3.25272275000000000000e+06) (20, -2.11808850000000000000e+06) (21, 2.72741479492187500000e+03) (22, -2.40992626953125000000e+03) (23, -1.93724637500000000000e+06) 
