FANN_FIX_2.0
decimal_point=0
num_layers=5
learning_rate=0.250000
connection_rate=1.000000
network_type=0
learning_momentum=0.000000
training_algorithm=0
train_error_function=1
train_stop_function=0
cascade_output_change_fraction=0.010000
quickprop_decay=-0.000100
quickprop_mu=1.750000
rprop_increase_factor=1.200000
rprop_decrease_factor=0.500000
rprop_delta_min=0.000000
rprop_delta_max=50.000000
rprop_delta_zero=0.100000
cascade_output_stagnation_epochs=12
cascade_candidate_change_fraction=0.010000
cascade_candidate_stagnation_epochs=12
cascade_max_out_epochs=150
cascade_max_cand_epochs=150
cascade_num_candidate_groups=2
bit_fail_limit=0
cascade_candidate_limit=1000
cascade_weight_multiplier=0
cascade_activation_functions_count=10
cascade_activation_functions=3 5 7 8 10 11 14 15 16 17 
cascade_activation_steepnesses_count=4
cascade_activation_steepnesses=0 1 1 1 
layer_sizes=4 7 10 3 2 
neurons (num_inputs, activation_function, activation_steepness)=(0, 0, 0) (0, 0, 0) (0, 0, 0) (0, 0, 0) (4, 14, 1) (4, 14, 1) (4, 14, 1) (4, 14, 1) (4, 14, 1) (4, 14, 1) (0, 14, 1) (7, 14, 1) (7, 14, 1) (7, 14, 1) (7, 14, 1) (7, 14, 1) (7, 14, 1) (7, 14, 1) (7, 14, 1) (7, 14, 1) (0, 14, 1) (10, 14, 1) (10, 14, 1) (0, 14, 1) (3, 14, 1) (0, 14, 1) 
connections (connected_to_neuron, weight)=(0, -2147483648) (1, -2147483648) (2, -2147483648) (3, -2147483648) (0, -2147483648) (1, -2147483648) (2, -2147483648) (3, -2147483648) (0, -2147483648) (1, -2147483648) (2, -2147483648) (3, -2147483648) (0, -2147483648) (1, -2147483648) (2, -2147483648) (3, -2147483648) (0, -2147483648) (1, -2147483648) (2, -2147483648) (3, -2147483648) (0, -2147483648) (1, -2147483648) (2, -2147483648) (3, -2147483648) (4, -2147483648) (5, -2147483648) (6, -2147483648) (7, -2147483648) (8, -2147483648) (9, -2147483648) (10, -2147483648) (4, -2147483648) (5, -2147483648) (6, -2147483648) (7, -2147483648) (8, -2147483648) (9, -2147483648) (10, -2147483648) (4, -2147483648) (5, -2147483648) (6, -2147483648) (7, -2147483648) (8, -2147483648) (9, -2147483648) (10, -2147483648) (4, -2147483648) (5, -2147483648) (6, -2147483648) (7, -2147483648) (8, -2147483648) (9, -2147483648) (10, -2147483648) (4, -2147483648) (5, -2147483648) (6, -2147483648) (7, -2147483648) (8, -2147483648) (9, -2147483648) (10, -2147483648) (4, -2147483648) (5, -2147483648) (6, -2147483648) (7, -2147483648) (8, -2147483648) (9, -2147483648) (10, -2147483648) (4, -2147483648) (5, -2147483648) (6, -2147483648) (7, -2147483648) (8, -2147483648) (9, -2147483648) (10, -2147483648) (4, -2147483648) (5, -2147483648) (6, -2147483648) (7, -2147483648) (8, -2147483648) (9, -2147483648) (10, -2147483648) (4, -2147483648) (5, -2147483648) (6, -2147483648) (7, -2147483648) (8, -2147483648) (9, -2147483648) (10, -2147483648) (11, -4155959) (12, -4873842) (13, 2564024) (14, -2175902) (15, 2970065) (16, 572973) (17, -2887271) (18, -3455579) (19, -3374715) (20, -3049666) (11, -382399) (12, 1344949) (13, -4248111) (14, -1280503) (15, 2925306) (16, -1325910) (17, 2845177) (18, 517924) (19, 3252723) (20, -2118088) (21, 2727) (22, -2410) (23, -1937246) 
