FANN_FLO_2.1
num_layers=5
learning_rate=0.250000
connection_rate=1.000000
network_type=0
learning_momentum=0.000000
training_algorithm=3
train_error_function=1
train_stop_function=0
cascade_output_change_fraction=0.010000
quickprop_decay=-0.000100
quickprop_mu=1.750000
rprop_increase_factor=1.200000
rprop_decrease_factor=0.500000
rprop_delta_min=0.000000
rprop_delta_max=50.000000
rprop_delta_zero=0.100000
cascade_output_stagnation_epochs=12
cascade_candidate_change_fraction=0.010000
cascade_candidate_stagnation_epochs=12
cascade_max_out_epochs=150
cascade_max_cand_epochs=150
cascade_num_candidate_groups=2
bit_fail_limit=3.49999994039535522461e-01
cascade_candidate_limit=1.00000000000000000000e+03
cascade_weight_multiplier=4.00000005960464477539e-01
cascade_activation_functions_count=10
cascade_activation_functions=3 5 7 8 10 11 14 15 16 17 
cascade_activation_steepnesses_count=4
cascade_activation_steepnesses=2.50000000000000000000e-01 5.00000000000000000000e-01 7.50000000000000000000e-01 1.00000000000000000000e+00 
layer_sizes=2 9 17 3 2 
scale_included=0
neurons (num_inputs, activation_function, activation_steepness)=(0, 0, 0.00000000000000000000e+00) (0, 0, 0.00000000000000000000e+00) (2, 14, 1.00000000000000000000e+00) (2, 14, 1.00000000000000000000e+00) (2, 14, 1.00000000000000000000e+00) (2, 14, 1.00000000000000000000e+00) (2, 14, 1.00000000000000000000e+00) (2, 14, 1.00000000000000000000e+00) (2, 14, 1.00000000000000000000e+00) (2, 14, 1.00000000000000000000e+00) (0, 14, 1.00000000000000000000e+00) (9, 14, 1.00000000000000000000e+00) (9, 14, 1.00000000000000000000e+00) (9, 14, 1.00000000000000000000e+00) (9, 14, 1.00000000000000000000e+00) (9, 14, 1.00000000000000000000e+00) (9, 14, 1.00000000000000000000e+00) (9, 14, 1.00000000000000000000e+00) (9, 14, 1.00000000000000000000e+00) (9, 14, 1.00000000000000000000e+00) (9, 14, 1.00000000000000000000e+00) (9, 14, 1.00000000000000000000e+00) (9, 14, 1.00000000000000000000e+00) (9, 14, 1.00000000000000000000e+00) (9, 14, 1.00000000000000000000e+00) (9, 14, 1.00000000000000000000e+00) (9, 14, 1.00000000000000000000e+00) (0, 14, 1.00000000000000000000e+00) (17, 14, 1.00000000000000000000e+00) (17, 14, 1.00000000000000000000e+00) (0, 14, 1.00000000000000000000e+00) (3, 14, 1.00000000000000000000e+00) (0, 14, 1.00000000000000000000e+00) 
connections (connected_to_neuron, weight)=(0, 2.17555016279220581055e-02) (1, -1.16908457130193710327e-02) (0, 7.93526787310838699341e-03) (1, 1.36119276285171508789e-02) (0, 2.17763315886259078979e-02) (1, -2.15818304568529129028e-02) (0, 2.17899363487958908081e-02) (1, -2.84734144806861877441e-02) (0, 3.09052541851997375488e-02) (1, 2.07907948642969131470e-02) (0, 3.09276673942804336548e-02) (1, 8.41365009546279907227e-03) (0, 7.99697823822498321533e-03) (1, -1.52574712410569190979e-02) (0, 3.09332311153411865234e-02) (1, 4.35161776840686798096e-03) (2, 1.85597874224185943604e-02) (3, 2.49875597655773162842e-02) (4, 3.05721703916788101196e-02) (5, 1.43779404461383819580e-02) (6, 1.49975111708045005798e-02) (7, 5.98090607672929763794e-03) (8, 3.35489027202129364014e-02) (9, 2.49405317008495330811e-02) (10, -2.04798579216003417969e-02) (2, 1.74111854285001754761e-02) (3, 6.71346951276063919067e-03) (4, 1.86746753752231597900e-02) (5, 2.65877582132816314697e-02) (6, 1.23854707926511764526e-02) (7, 3.88302979990839958191e-03) (8, 1.44691290333867073059e-02) (9, 2.23501436412334442139e-02) (10, -1.72100141644477844238e-02) (2, 7.55378510802984237671e-03) (3, 2.19583269208669662476e-02) (4, 1.93234849721193313599e-02) (5, 3.22508923709392547607e-02) (6, 1.74241252243518829346e-02) (7, 1.23104676604270935059e-02) (8, 2.95016802847385406494e-02) (9, 1.55811272561550140381e-02) (10, 2.60704774409532546997e-02) (2, 7.64713436365127563477e-03) (3, 2.78970412909984588623e-02) (4, 3.01667414605617523193e-02) (5, 2.60401424020528793335e-02) (6, 3.65637335926294326782e-03) (7, 1.20282294228672981262e-02) (8, 2.04285066574811935425e-02) (9, 1.18740303441882133484e-02) (10, 9.89903882145881652832e-03) (2, 2.40436885505914688110e-02) (3, 1.33774159476161003113e-02) (4, 1.87908969819545745850e-02) (5, 2.97440160065889358521e-02) (6, 2.01639942824840545654e-02) (7, 1.67366899549961090088e-02) (8, 1.59309711307287216187e-02) (9, 1.11871454864740371704e-02) (10, 1.36955492198467254639e-02) (2, 1.04544451460242271423e-02) (3, 2.16503739356994628906e-02) (4, 1.50923207402229309082e-02) (5, 1.78344827145338058472e-02) (6, 1.88925117254257202148e-02) (7, 2.55695674568414688110e-02) (8, 3.17100360989570617676e-02) (9, 1.21634164825081825256e-02) (10, -2.15437952429056167603e-02) (2, 1.13767357543110847473e-02) (3, 4.18288782238960266113e-02) (4, 2.55692116916179656982e-02) (5, 4.03702892363071441650e-02) (6, 4.82779555022716522217e-03) (7, 1.01323742419481277466e-02) (8, 3.64520177245140075684e-02) (9, 2.56453957408666610718e-02) (10, -1.89174748957157135010e-02) (2, 4.32365201413631439209e-03) (3, 5.51370158791542053223e-03) (4, 1.79388523101806640625e-02) (5, 2.52665877342224121094e-02) (6, 1.92625336349010467529e-02) (7, 1.87925845384597778320e-02) (8, 4.69205435365438461304e-03) (9, 8.76410678029060363770e-03) (10, -2.94425431638956069946e-02) (2, 1.93531345576047897339e-02) (3, 1.98778845369815826416e-02) (4, 1.36817097663879394531e-02) (5, 1.01172402501106262207e-02) (6, 2.16702204197645187378e-02) (7, 2.73808408528566360474e-02) (8, 2.35434398055076599121e-02) (9, 3.65353142842650413513e-03) (10, -1.35212391614913940430e-02) (2, 1.36321457102894783020e-02) (3, 3.58232147991657257080e-02) (4, 2.56933420896530151367e-02) (5, 1.88248492777347564697e-02) (6, 3.32347936928272247314e-02) (7, 2.07233224064111709595e-02) (8, 3.83814722299575805664e-02) (9, 3.31410393118858337402e-02) (10, 3.55144101195037364960e-03) (2, 1.24837039038538932800e-02) (3, 3.53741645812988281250e-02) (4, 1.61329414695501327515e-02) (5, 1.89364403486251831055e-02) (6, 2.93686203658580780029e-02) (7, 1.40282111242413520813e-02) (8, 3.80290970206260681152e-02) (9, 2.02604122459888458252e-02) (10, 2.22238935530185699463e-02) (2, 1.69117785990238189697e-02) (3, 2.52866018563508987427e-02) (4, 8.70831590145826339722e-03) (5, 1.81708224117755889893e-02) (6, 3.37333716452121734619e-02) (7, 1.79511588066816329956e-02) (8, 2.85859443247318267822e-02) (9, 6.25042524188756942749e-03) (10, -2.92578153312206268311e-02) (2, 1.81896965950727462769e-02) (3, 2.66785230487585067749e-02) (4, 7.71937053650617599487e-03) (5, 2.73957308381795883179e-02) (6, 2.90797576308250427246e-02) (7, 3.21017652750015258789e-02) (8, 1.68752968311309814453e-02) (9, 9.57164354622364044189e-03) (10, 2.18944810330867767334e-02) (2, 3.39991599321365356445e-02) (3, 1.46082080900669097900e-02) (4, 3.22552733123302459717e-02) (5, 1.96659266948699951172e-02) (6, 1.12956697121262550354e-02) (7, 1.92058030515909194946e-02) (8, 2.94248666614294052124e-02) (9, 2.10264977067708969116e-02) (10, -1.67059786617755889893e-02) (2, 3.25065515935420989990e-02) (3, 1.63632892072200775146e-02) (4, 2.73541919887065887451e-02) (5, 2.75362078100442886353e-02) (6, 2.33070533722639083862e-02) (7, 9.98903624713420867920e-03) (8, 3.18423472344875335693e-02) (9, 3.32652870565652847290e-03) (10, -1.97583176195621490479e-02) (2, 1.25351306051015853882e-02) (3, 2.69369222223758697510e-02) (4, 1.32877668365836143494e-02) (5, 1.38669768348336219788e-02) (6, 3.78406117670238018036e-03) (7, 3.01267374306917190552e-02) (8, 1.75137873739004135132e-02) (9, 2.55326386541128158569e-02) (10, 1.18638677522540092468e-02) (11, 2.97083910554647445679e-02) (12, 1.46146733313798904419e-02) (13, 4.70554940402507781982e-02) (14, 2.17840392142534255981e-02) (15, 4.22787964344024658203e-02) (16, 1.97412874549627304077e-02) (17, 5.36662116646766662598e-02) (18, 1.81278679519891738892e-02) (19, 2.37522479146718978882e-02) (20, 3.80100458860397338867e-02) (21, 4.71660457551479339600e-02) (22, 4.31151390075683593750e-02) (23, 3.80046404898166656494e-02) (24, 4.29304912686347961426e-02) (25, 2.57863327860832214355e-02) (26, 2.70655155181884765625e-02) (27, -5.32440794631838798523e-03) (11, 3.98018769919872283936e-02) (12, 2.83723380416631698608e-02) (13, 2.06126347184181213379e-02) (14, 3.86467128992080688477e-02) (15, 3.55304367840290069580e-02) (16, 2.93192733079195022583e-02) (17, 3.31633947789669036865e-02) (18, 9.26053989678621292114e-03) (19, 3.66149470210075378418e-02) (20, 3.55657823383808135986e-02) (21, 4.48470897972583770752e-02) (22, 1.80624853819608688354e-02) (23, 2.11354568600654602051e-02) (24, 3.44571955502033233643e-02) (25, 3.00745368003845214844e-02) (26, 2.00551319867372512817e-02) (27, -1.37050356715917587280e-03) (28, 1.23821049928665161133e-01) (29, 1.03025026619434356689e-01) (30, 2.34497990459203720093e-02) 
