FANN_FLO_2.1
num_layers=5
learning_rate=0.250000
connection_rate=1.000000
network_type=0
learning_momentum=0.000000
training_algorithm=0
train_error_function=1
train_stop_function=0
cascade_output_change_fraction=0.010000
quickprop_decay=-0.000100
quickprop_mu=1.750000
rprop_increase_factor=1.200000
rprop_decrease_factor=0.500000
rprop_delta_min=0.000000
rprop_delta_max=50.000000
rprop_delta_zero=0.100000
cascade_output_stagnation_epochs=12
cascade_candidate_change_fraction=0.010000
cascade_candidate_stagnation_epochs=12
cascade_max_out_epochs=150
cascade_max_cand_epochs=150
cascade_num_candidate_groups=2
bit_fail_limit=3.49999994039535522461e-01
cascade_candidate_limit=1.00000000000000000000e+03
cascade_weight_multiplier=4.00000005960464477539e-01
cascade_activation_functions_count=10
cascade_activation_functions=3 5 7 8 10 11 14 15 16 17 
cascade_activation_steepnesses_count=4
cascade_activation_steepnesses=2.50000000000000000000e-01 5.00000000000000000000e-01 7.50000000000000000000e-01 1.00000000000000000000e+00 
layer_sizes=2 7 10 3 2 
scale_included=0
neurons (num_inputs, activation_function, activation_steepness)=(0, 0, 0.00000000000000000000e+00) (0, 0, 0.00000000000000000000e+00) (2, 14, 1.00000000000000000000e+00) (2, 14, 1.00000000000000000000e+00) (2, 14, 1.00000000000000000000e+00) (2, 14, 1.00000000000000000000e+00) (2, 14, 1.00000000000000000000e+00) (2, 14, 1.00000000000000000000e+00) (0, 14, 1.00000000000000000000e+00) (7, 14, 1.00000000000000000000e+00) (7, 14, 1.00000000000000000000e+00) (7, 14, 1.00000000000000000000e+00) (7, 14, 1.00000000000000000000e+00) (7, 14, 1.00000000000000000000e+00) (7, 14, 1.00000000000000000000e+00) (7, 14, 1.00000000000000000000e+00) (7, 14, 1.00000000000000000000e+00) (7, 14, 1.00000000000000000000e+00) (0, 14, 1.00000000000000000000e+00) (10, 14, 1.00000000000000000000e+00) (10, 14, 1.00000000000000000000e+00) (0, 14, 1.00000000000000000000e+00) (3, 14, 1.00000000000000000000e+00) (0, 14, 1.00000000000000000000e+00) 
connections (connected_to_neuron, weight)=(0, 3.61451729156389831338e+24) (1, 1.03700821768555533959e+24) (0, 3.61451729156389831338e+24) (1, 1.03700821768555533959e+24) (0, -2.03482488643463397822e+24) (1, -2.83104234940650569597e+23) (0, 1.30645058499819390527e+24) (1, 1.14146749967455559352e+23) (0, -6.43338385313303321222e+24) (1, 1.18747571051781915935e+22) (0, -5.61662889499644146378e+24) (1, -6.84475662227029767487e+23) (2, 5.68960548864000000000e+11) (3, 5.68960548864000000000e+11) (4, -8.86623830016000000000e+11) (5, -4.17571831808000000000e+11) (6, 3.52504315904000000000e+11) (7, 5.23572346880000000000e+11) (8, -1.97442325708800000000e+12) (2, -1.50307635200000000000e+11) (3, -1.50307635200000000000e+11) (4, -5.16961697792000000000e+11) (5, -7.55160350720000000000e+10) (6, -6.81343672320000000000e+10) (7, 2.19023949824000000000e+11) (8, -2.68661555200000000000e+12) (2, -2.09387225088000000000e+11) (3, -2.09387225088000000000e+11) (4, 2.95267500032000000000e+11) (5, 2.36431441920000000000e+10) (6, -2.41545805824000000000e+11) (7, -6.17326051328000000000e+11) (8, 3.16867477504000000000e+12) (2, 9.06718478336000000000e+11) (3, 9.06718478336000000000e+11) (4, 1.25725466624000000000e+11) (5, -1.18300819456000000000e+11) (6, 9.22959282176000000000e+11) (7, 2.57326039040000000000e+11) (8, -3.12524013568000000000e+11) (2, -1.62530803712000000000e+11) (3, -1.62530803712000000000e+11) (4, -2.06253260800000000000e+11) (5, -2.09503027200000000000e+11) (6, 7.25818146816000000000e+11) (7, -2.52398161920000000000e+10) (8, -2.92201398272000000000e+11) (2, -4.80241614848000000000e+11) (3, -4.80241614848000000000e+11) (4, -5.45450229760000000000e+11) (5, 2.39895543808000000000e+11) (6, -5.07841372160000000000e+10) (7, -5.21498230784000000000e+11) (8, -2.32844768051200000000e+12) (2, -4.24805367808000000000e+11) (3, -4.24805367808000000000e+11) (4, -1.88923527168000000000e+11) (5, 1.02899141836800000000e+12) (6, -3.78754826240000000000e+11) (7, -1.12637272064000000000e+11) (8, -2.39213897318400000000e+12) (2, 8.59100528640000000000e+10) (3, 8.59100528640000000000e+10) (4, 7.36655048704000000000e+11) (5, -5.11448285184000000000e+11) (6, 5.70460733440000000000e+11) (7, -2.05544980480000000000e+11) (8, -1.09924974592000000000e+12) (2, -5.24994510848000000000e+11) (3, -5.24994510848000000000e+11) (4, -8.21578563584000000000e+11) (5, 3.02258159616000000000e+11) (6, -5.71562917888000000000e+11) (7, -2.40297000960000000000e+11) (8, 4.88435712000000000000e+10) (9, 2.27837825000000000000e+06) (10, -1.21728100000000000000e+06) (11, -1.60065000000000000000e+05) (12, -8.14425937500000000000e+05) (13, 1.66312925000000000000e+06) (14, -4.66984765625000000000e+04) (15, 1.06426575000000000000e+06) (16, -4.36356968750000000000e+05) (17, -1.24564950000000000000e+06) (18, -1.92824487500000000000e+06) (9, 4.73269562500000000000e+05) (10, -1.19286737500000000000e+06) (11, 1.96202337500000000000e+06) (12, 1.72310487500000000000e+06) (13, 7.01968500000000000000e+05) (14, -9.95415437500000000000e+05) (15, 6.00404625000000000000e+05) (16, 1.56233962500000000000e+06) (17, -2.01382825000000000000e+06) (18, 1.40095062500000000000e+06) (19, 2.11015112304687500000e+03) (20, -4.50067199707031250000e+02) (21, -1.84018575000000000000e+06) 
